{('114', 8): -0.9905085993863771, ('94', 7): -1.020992273195641, ('74', 6): -1.4396435623611887, ('83', 5): -0.5841884549601934, ('22', 1): -0.2742386713186158, ('73', 8): -0.5167377987036512, ('52', 0): -0.40031963403269843, ('32', 0): -0.5033827329484443, ('114', 6): -0.9787973746228101, ('23', 4): -0.9461277740327909, ('53', 3): -0.7655662204304724, ('113', 9): -0.740594365033942, ('144', 3): -0.9423267441780679, ('93', 1): -0.6832497901385524, ('84', 4): -1.2470182891476018, ('24', 2): -0.7186021959181959, ('43', 0): -0.8658744730605772, ('54', 7): -2.162296362348323, ('83', 3): -0.5990442749361518, ('32', 7): -0.5084311846941875, ('53', 5): -0.7442296321713849, ('34', 3): -1.1604432276255792, ('42', 0): -0.37408614670531093, ('74', 5): -1.4929660094518369, ('83', 0): -0.5862899399343069, ('22', 2): -0.29007768224595454, ('52', 7): -0.35579664684388584, ('33', 7): -1.0836980233635811, ('44', 3): -2.0150192121573567, ('124', 6): -0.7816924176316733, ('42', 2): -0.3770379988053992, ('84', 1): -1.3043905002403584, ('73', 3): -0.5330151401974357, ('63', 6): -0.6066539685429414, ('43', 3): -0.8332026713903403, ('54', 2): -2.162984039322804, ('73', 1): -0.5034228624670442, ('64', 1): -1.6716698306107636, ('114', 1): -0.7853869762530595, ('94', 0): -1.0620441952535038, ('62', 4): -0.4421494379723653, ('34', 6): -0.9849785715526674, ('83', 9): -0.5541725488660919, ('52', 9): -0.33011119400382094, ('74', 0): -1.4554099508116116, ('104', 4): -0.7631769709543454, ('62', 2): -0.4101408868114823, ('103', 7): -0.7213974664284544, ('44', 9): -2.0296134255071867, ('33', 4): -1.142239836843874, ('53', 2): -0.7034959767024012, ('44', 4): -1.9778275503495273, ('42', 9): -0.31252798104385615, ('54', 8): -2.1096861190366156, ('84', 2): -1.2718224967980347, ('93', 3): -0.6768616960554341, ('63', 5): -0.5182062675485243, ('43', 6): -0.8551923344542973, ('34', 8): -0.9658568073961864, ('64', 6): -1.7032452652691925, ('94', 3): -0.9134149618260807, ('53', 9): -0.6805717847040046, ('34', 5): -1.0404615429110529, ('42', 7): -0.33353405367232575, ('22', 5): -0.2868667510628453, ('104', 1): -0.9581257573460131, ('23', 0): -0.9090377110455894, ('22', 8): -0.307299655000616, ('33', 1): -1.1827214033557538, ('84', 8): -1.250052343331998, ('22', 0): -0.35349368911131573, ('24', 6): -0.6839525667693402, ('42', 4): -0.3543356118194957, ('93', 4): -0.6654304072053381, ('64', 8): -1.7565591854398257, ('24', 9): -0.7216624655611997, ('43', 9): -0.8752757950796222, ('103', 3): -0.7380568324294237, ('94', 6): -1.1009700705912928, ('62', 7): -0.47262868318274387, ('74', 9): -1.4348344193565898, ('124', 3): -0.8183152391909988, ('83', 4): -0.6142021999832321, ('22', 6): -0.29678001138147936, ('73', 2): -0.5090411590893819, ('104', 2): -0.9330296137342027, ('23', 7): -0.8799868166791209, ('32', 6): -0.5050909414359661, ('32', 2): -0.5026075004867525, ('124', 4): -0.8031145385704397, ('62', 1): -0.5210217046262526, ('84', 5): -1.2122725320081993, ('24', 3): -0.8274767349031107, ('42', 8): -0.3210581434455634, ('54', 6): -2.15041901157969, ('114', 5): -0.9836085704537296, ('32', 4): -0.4993190644087503, ('34', 2): -0.9902120172679176, ('134', 5): -0.9090098929766977, ('94', 9): -1.0573977345530934, ('74', 4): -1.4391334468171666, ('104', 8): -0.9627981111225848, ('42', 6): -0.3217848429480691, ('22', 3): -0.312026752854382, ('72', 9): -0.48893224963921783, ('52', 6): -0.30271171671071057, ('33', 8): -1.1740309307759103, ('44', 0): -1.982284325134427, ('83', 7): -0.5941712063902298, ('42', 3): -0.34859507346083013, ('84', 6): -1.3239587300729845, ('24', 0): -0.7200837357915786, ('43', 2): -0.860613958193674, ('54', 1): -2.1128922061813666, ('64', 2): -1.7622060819831482, ('114', 0): -0.8015848548673591, ('62', 3): -0.4349140462206955, ('73', 7): -0.5326440319796703, ('34', 1): -1.026254577137483, ('43', 7): -0.8521014011893101, ('52', 8): -0.3982448485644977, ('74', 3): -1.4569640109523798, ('104', 5): -0.9122508494696879, ('124', 2): -0.7911316217665324, ('83', 2): -0.5557713276035371, ('52', 5): -0.37782546619236107, ('33', 5): -1.1340015761364073, ('23', 9): -0.900179458901669, ('63', 8): -0.5490281519969203, ('44', 5): -2.039919415798599, ('32', 3): -0.5039453559391212, ('43', 1): -0.8709282544891052, ('84', 3): -1.167307677496889, ('124', 8): -0.8157536286295958, ('63', 4): -0.4884044669474083, ('43', 5): -0.8901101808579215, ('32', 1): -0.5456518739047093, ('64', 7): -1.742567457084075, ('114', 3): -0.7813990245560918, ('94', 2): -1.0246156507305286, ('32', 5): -0.497189318205105, ('34', 4): -1.0752807693067692, ('62', 8): -0.5233065602856976, ('53', 6): -0.7140340727731667, ('104', 6): -0.9291295360651064, ('23', 3): -0.9103601564185665, ('22', 9): -0.33940057537372403, ('53', 7): -0.7000151739847787, ('33', 2): -1.1606781813913785, ('84', 9): -1.3261095862417802, ('44', 6): -2.0747475573732475, ('24', 7): -0.6946280219353058, ('42', 5): -0.3506662047007545, ('93', 5): -0.626615510664331, ('64', 9): -1.6619805643608752, ('63', 3): -0.5282953638726766, ('43', 8): -0.8299989874310294, ('103', 2): -0.701931883232211, ('64', 4): -1.6568710995268017, ('94', 5): -1.0390618772799662, ('124', 5): -0.8398645658170772, ('73', 6): -0.5742831044116815, ('74', 8): -1.5559536692708678, ('22', 7): -0.2719172850086551, ('62', 9): -0.4676587826558286, ('52', 2): -0.33193581008645356, ('104', 3): -0.9661057305542069, ('124', 1): -0.8037490169862159, ('23', 6): -0.878206563534494, ('72', 2): -0.42484385956621695, ('32', 9): -0.5111650774837789, ('63', 9): -0.5990985240641258, ('24', 4): -0.8353519765808926, ('54', 5): -2.109667224047928, ('114', 4): -0.7963266211479388, ('114', 9): -0.9841938788812351, ('94', 8): -1.0502962116722931, ('134', 3): -0.881350367303945, ('74', 7): -1.5029663674807874, ('104', 9): -0.9345351234084951, ('83', 6): -0.6296813324479824, ('53', 1): -0.676803573008629, ('72', 8): -0.4810576856400092, ('52', 1): -0.32970142270736985, ('33', 9): -1.130405250115345, ('23', 5): -0.8776187007962849, ('44', 1): -2.0239691394825168, ('84', 7): -1.1899266460767244, ('24', 1): -0.6811275338876945, ('62', 0): -0.5113846259979112, ('54', 0): -2.113556183280784, ('64', 3): -1.7192387762781933, ('114', 7): -0.7904679491257967, ('34', 0): -1.1785714452707492, ('63', 0): -0.4863776612686156, ('74', 2): -1.4509302846704646, ('83', 1): -0.5951253317757621, ('113', 6): -0.7568583089459507, ('52', 4): -0.37931298314044737, ('33', 6): -1.1381805408153918, ('124', 0): -0.8107526377790085, ('23', 8): -0.9838242423424101, ('44', 2): -2.0154607375243527, ('42', 1): -0.37589791831631586, ('84', 0): -1.2498196223161004, ('53', 4): -0.6928855293746808, ('63', 7): -0.4879237983471564, ('62', 5): -0.41788972188073514, ('54', 3): -2.1761031422848505, ('64', 0): -1.7363010916515391, ('114', 2): -0.782660243688882, ('94', 1): -1.058967054867058, ('34', 7): -0.9896271410580718, ('154', 0): -0.9396884323944394, ('73', 9): -0.5570828299284598, ('74', 1): -1.5248272343958176, ('104', 7): -0.9269642223854656, ('23', 2): -0.9011087774878155, ('53', 0): -0.6708372373420592, ('44', 8): -2.030490138628395, ('33', 3): -1.149740498284066, ('44', 7): -1.981674537708622, ('144', 8): -0.9015452542209941, ('54', 9): -2.0558766054560818, ('63', 2): -0.5861451969673571, ('62', 6): -0.42119849969988643, ('34', 9): -1.1030670430351548, ('64', 5): -1.652188636363857, ('94', 4): -0.8783447000507729, ('53', 8): -0.6670004627036782, ('154', 5): -0.9187898142719892, ('22', 4): -0.2873395515541484, ('63', 1): -0.6206503360739462, ('104', 0): -0.9090316942879226, ('23', 1): -0.9703229756097825, ('32', 8): -0.5050871582193572, ('33', 0): -1.1343773643138224, ('73', 4): -0.5727406578773014, ('124', 7): -0.8215748018406751, ('24', 5): -0.785896322933983, ('54', 4): -2.1178424611720152, ('52', 3): -0.3378292193485314, ('93', 7): -0.6478493590060016, ('24', 8): -0.7742775813754804, ('43', 4): -0.864408903623297}